function [Y,Xf,Af] = ANN_vert_500n1_normal(X,~,~)
%ANN_VERT_500N1_NORMAL neural network simulation function.
%
% Auto-generated by MATLAB, 24-Apr-2021 13:38:45.
% 
% [Y] = ANN_vert_500n1_normal(X,~,~) takes these arguments:
% 
%   X = 1xTS cell, 1 inputs over TS timesteps
%   Each X{1,ts} = 1xQ matrix, input #1 at timestep ts.
% 
% and returns:
%   Y = 1xTS cell of 1 outputs over TS timesteps.
%   Each Y{1,ts} = 1xQ matrix, output #1 at timestep ts.
% 
% where Q is number of samples (or series) and TS is the number of timesteps.

%#ok<*RPMT0>

% ===== NEURAL NETWORK CONSTANTS =====

% Input 1
x1_step1.xoffset = -105928;
x1_step1.gain = 8.43401437999452e-06;
x1_step1.ymin = -1;

% Layer 1
b1 = [700.17146466727876941;-697.1931556857009582;694.38877801010698931;-691.58316631148318265;688.7775551102887448;-685.97194388777472795;683.16633266535268376;-680.36072134066944272;-677.55512853556933806;-674.74492226274207951;-671.98252962995718462;-669.15662111690596703;666.3498073303755973;663.52681487364986879;660.72144030044592;-657.91573668600983638;655.14562702346256629;-652.31663055596277445;649.49963036086489865;-646.69574012261409734;643.88751377753965244;641.0212239588876173;638.38484974610958034;-635.23951772160853579;632.73324428647208606;629.86267556205541496;-627.03844095526847013;-624.1917263143893706;-621.46163765550591052;-618.6098213023885819;615.86854500414551694;-613.04090798539300522;-609.91084242021804585;607.58139012092010489;-604.59504358365791177;601.79291296069186501;598.5256794408199994;-596.35316687882902897;-593.3537823179856332;-590.59216077965834302;587.77362567389411652;-584.99200325624167363;582.13441514714691039;579.3832654079749318;576.52203286786834724;574.34229338345426186;-570.95365328535308436;568.18965344721846122;-565.37991541547603447;562.3245617430781067;-559.68500625675687843;556.88568368041421763;-553.7407596493338815;-551.32912284878625542;-548.65604284341725361;545.71607293982219744;542.85623347147941331;540.11238356661658599;-537.25058805749472413;534.44353637245967548;-531.67153870344907318;-528.91608196605329795;-525.8567560848479161;523.37202638811641009;520.5198030952441286;517.66982842715435709;-514.9015347771813822;511.95568540025220727;-509.09026095277147306;-506.34996906279121731;-503.6959553745359699;500.79886672881997356;498.0224635934389994;495.13260431407485385;-492.85724233110227033;489.86948469103737125;-486.89203438768322485;484.02113691893640635;481.29438249009950823;478.47492241257873502;475.54189541122985929;-472.68027652691819185;-470.01135683002348742;-467.04815201911173972;464.21538887986235977;-461.65098009313487637;-458.80307211271599499;455.98642894478484777;-453.08063921275424946;450.51700126695328663;447.39794907780964195;444.63780870125032152;441.77090334134186378;439.01530564731018558;436.24836345566620821;433.45533163530700449;430.39394336992052104;-427.80480967941230119;-425.15663172426513938;422.204300164109668;419.53538753513549864;416.65138408030924211;-413.82680060964059976;411.01409483914011389;408.53840723963458004;-405.45758817338014524;402.63720573484351917;399.66211624134450631;396.83231245789488639;394.3323572917216211;391.06900073911077698;-388.71722056907231035;-385.70989491581661923;-382.77080613645819085;379.60148345067716491;377.7963393814126789;374.65401374769345466;-371.87495220160735698;369.0788789056196606;366.02643988394396501;363.37583960100886316;-360.52836803093373419;-357.82184024455455074;-355.16594482494764407;352.08664089782195106;-349.37861134116678841;346.52610903646581164;-343.59196951344085846;340.84858438552760163;-338.26527161111340547;335.5746730259030528;332.40097330833464184;-329.65185293402373645;-326.87285730064985501;324.1521439612978952;-321.34326263256303946;-318.47203213197929017;315.37324179349144515;312.90979384229314064;310.03718431655164522;307.22471972434902909;-304.43256427806028341;-301.62869792392501722;-298.75676850110204441;-296.17043680263719807;-293.11765380588900598;290.31992744417817676;-287.58263658654294659;-284.69203211421233846;281.83338982721392085;-279.36068787355287668;-276.52807719994405034;-273.5817793904364521;-270.45499467967641749;-267.86054438486593199;265.06186619298711094;262.36923144656674367;259.63345398234378081;256.74734913015686288;-253.87125053593197777;251.26631656416853389;248.26922598419881183;245.39564043489079381;242.54630549789433758;240.1560528026828365;236.98399067790529671;-234.39041890395162682;231.45407096936858693;228.71533804706825777;-225.97875685263852574;-223.04990823319505466;220.23154300205433742;217.56246648354934337;214.55907955953523469;211.82242845645930629;-209.03320995662656401;206.19937330943173492;-203.18823586793800473;-200.59901029269781247;197.68315272255890136;194.87882778241171877;192.18141580077687536;189.4669233063365823;186.44764020781110503;-183.86391594026284224;180.60651649808366415;177.93876552295168381;-175.21184371001109525;172.65948503058845631;-169.86434787618387077;-166.87863712377048842;164.08212073930107522;-161.20632767225080784;158.88749069635568389;155.697040014771801;-152.9898045772430919;-149.98339574707361521;-147.56102801684772885;144.45802935365111352;141.58791831630446723;-139.02655440589822433;-135.94359408622372598;133.29995032046792858;130.55477798034823422;-127.68061509426834732;124.99030002258298566;-122.17870633912407641;-119.06071095195679277;-116.42217149211219862;113.80394918918662484;110.93753779297324513;108.08096695419261835;-105.20811199062106311;102.14559395690872634;-99.440295350562024623;96.828413221987332804;-93.803956317141270915;91.422764709332483335;-88.296784525724419268;-85.491013177800439848;-82.806404730559066252;-79.860804273581877055;76.972297283362223652;-74.388967884327897195;71.45701992742564812;68.500174840540410059;-65.865078189731093516;-63.004450600169811025;60.428816034227537557;-57.477547194825326926;-54.674077318959987792;-51.905127947065636818;-48.850270467981872002;-46.241152873308458027;-43.116281666335680711;40.548508947434292793;37.897739623141390553;-34.997121780555673354;32.480893949216770977;29.348966293596024713;26.56916283773359666;-24.219998457739141173;-20.931032392458483571;-17.910247679430913337;15.611911930569879914;12.708699031586096595;-9.8469014936324654741;6.9340770093195152057;3.9263410122056376927;-1.746796072045103454;-0.95321580786619253267;4.3460059000367072812;7.0366307751410008819;9.4908360981638892895;-12.615539904157465401;15.37910052942679151;18.139311654138456475;21.036500936733929734;24.017172869892206677;26.43304071263055377;-29.514102684016386036;-32.313771682413502617;35.024343618351302609;-38.3966908056231091;-41.626649713101016914;-43.509566147242885847;-46.199978234414153633;48.629250055914177153;52.217658495044581457;-54.928187187118425072;-57.624710392525237523;60.393796097460771932;-62.69223159410987023;65.07104417338211988;68.503768273835746072;-71.590500009451389474;-74.973677491958710561;-76.982153693744251655;80.511708145046469554;-82.447802789957052028;-85.340753502246130324;-88.413786635963290905;-91.11780941720033411;-94.00505459273432507;-96.91588046188547878;99.506362217796507252;102.16000064031794636;-104.85096445260332132;107.57646109318596928;-110.59855023182814193;-113.42814468098545433;116.41969940688302643;119.23439897250042918;-122.18593718528174463;124.26954930233165442;-127.73970201993967066;130.3302570960005653;133.22516692126802695;136.04754552692253355;138.55913798763089062;141.52576525467043211;-144.5006344280615167;-147.03844922653692606;149.85019107376120928;-152.85584411798899396;-155.55397110240338066;158.6274500548204287;161.26982911576578772;163.91432969263829023;-166.96061608464458459;-169.8550468403867626;-172.5929993749996072;175.2340219973964679;-178.14351508266918245;180.87508604221616793;184.10623517600083687;-186.79477683388239484;-189.3277476307259235;-192.15570566679198805;-195.03021081614517129;-197.78098493246830003;200.46590160329088803;-203.41863397084790677;-206.27081218144940067;209.0267136266165835;-211.59950438240909421;-214.82116527766211789;217.43329132476677046;-220.19305976239772349;222.93935737793728435;225.90164525571643139;228.74117335861927813;-231.31298049743230649;234.52609212228276192;-236.83260567654514261;239.92739981638527524;242.60783599560105017;245.62176373919754724;-248.36358456374389903;251.05746411568756571;-253.77080425211778447;-256.79165991459495899;-259.49891347716044265;-262.30373487510792074;-265.10506445125440678;-268.15737188770202692;-270.77877827770817021;273.48561646530663438;-276.3701285610069931;279.09491364886633846;281.87571085710516172;284.71185701367090815;-288.05379095535482747;-290.53671868238507159;-293.00624049985498232;296.32090799052701868;298.85046084615458994;-301.97658631558607567;304.69231833937590181;307.14409118730520731;309.18953885525365877;312.79063433298398422;-315.27866473965201521;-318.98052451551978947;321.30986730553786401;324.20512892537732341;-326.72351146255647336;-329.96225728246815834;-332.2451093089865708;-335.16139028757640972;-337.4773159668847029;-340.8855498228163583;343.8452668886355923;-346.61055506502475509;349.15643948944011754;352.02145205183359167;354.63886676314234592;357.77168926989560305;360.46899680878590289;-363.62126794103392058;366.31941161634210857;-369.14248108834050299;371.56319209300903594;374.6466008005025401;-377.07694681294287875;-380.09229149933577219;-383.01677395410990812;386.01165215981689016;388.35570394605031197;-391.29931547697282213;394.12452508998370604;397.13069260442199493;-399.67034892767702559;402.61764100073031614;-405.54699714058511972;408.1372764369801871;-410.96036528266893129;-413.82830613572036782;-416.60280148983645176;-419.40437414898707402;422.20915577789003237;-425.12078298892413386;427.81586696114953838;-430.73063300681360488;-433.50849771168037705;-436.28402005674411157;439.22100105297704431;-442.0473121575594746;-444.63191497672261221;-447.50163462572209028;450.30155992364950635;-453.12173720479279382;455.90211123648157354;-458.65097365471893909;461.68746293792423785;-464.27798499635542839;467.29560045022253689;-469.90220564493671418;-473.10222364144715357;-475.25922185351987537;478.34541988638386556;481.21185520843653194;483.82419387093119667;-486.67711808490309977;489.58539479861974542;492.41185165942908952;495.11117704380421856;498.1089768228616208;500.45474177610702782;-503.59924212279616995;506.24672477860912068;-509.58024656796021645;-512.639077639837069;514.94207892378415181;-517.47969691786454405;-519.78253615096571139;523.2174399757292349;525.67201457948829102;-528.80873148981845588;531.3240557513006479;-534.76127230121471712;537.44122435186159237;540.05768146841614907;-542.91809952628875635;545.48741416615234812;548.52296339970428107;551.26225825462699959;554.07436067954984082;-557.30590031092958725;-559.47649552091081659;-562.671231437617962;565.20246071429937729;568.41416793887685799;-570.9804080576366232;573.8410794764839693;576.66987298209983237;579.10597775021619782;582.56684398039647022;584.8765578931033815;587.92774887070515888;590.62644985404040199;-594.0107719854760262;-596.37218078609146232;-599.32372009465041174;-602.03931305144487851;-604.27525808826487719;-607.82215233234319385;-610.78618501864139034;613.03025507228301194;615.62607566525332459;618.70866053072268187;621.72103308844236835;624.04332730280782471;-626.9479108746777456;-629.39627868349032269;632.589437863916487;-635.41956130437858974;638.30996903249592833;641.11806092037045346;643.99771009250241605;-646.65614742949503579;-649.47730740553163287;652.30469516590278545;655.13602481726206861;658.00562553284464684;-660.72159962119940246;-663.77657266928804347;666.38240467902051023;-669.07913823254955332;-671.93310972898666478;674.74804564436317378;-677.35260533362281876;-680.35858973621532186;683.16961838760141745;-686.1565846217959006;688.77540267647486871;-691.5831594021615274;694.38877752938174126;697.19438877766629048;-700.00000000000022737];
IW1_1 = [-699.8285353328428755;700.00123309185471498;-699.99999954500333388;700.00000002118224529;-699.9999999999317879;700.00000000000090949;-699.99999999997896794;700.00000009820303148;699.99998240375668956;700.0043970391344601;699.96282625002640998;699.98242148575889132;-699.98369250281518816;-700.00022759576074804;-700.00000245358444317;700.00008868849863575;-699.96693788032735029;699.98877468125670021;-699.99941497864142548;699.99782446271308345;-700.00023718220586488;-700.05571684878066208;-699.90111621868697966;700.20976195503976669;-699.93839796085285343;-699.99734093223219134;700.01394159854521604;700.05059351411409807;699.98330125107281674;700.02419938417267531;-699.96752487941762411;699.9869732805213971;700.26971652858037487;-699.85545476933020836;700.01221585863618202;-700.00918154505916391;-700.40349537018687442;699.86299071297094088;700.02788365157550743;699.99055292149557772;-700.00161016110155288;699.98142428817197924;-700.02487655019115209;-699.97966183249241112;-700.02550718152360787;-699.51181923948990971;699.99028874605380679;-699.95637730715463931;699.95997833197179716;-700.16126533529995868;700.0274371795467232;-700.02182680057228481;700.28996131848896312;699.97846803445099795;699.87491376126581599;-699.98075161453584769;-700.02267810233854561;-699.9751044336034056;700.01837022685413103;-700.01932565751417314;699.99385549671296758;699.95592772980194241;700.14688321236280899;-699.90625203917727504;-699.94126831082144236;-699.9743504786848689;699.94721599731349215;-700.04989248925892298;700.09343844455395356;700.0451387470723148;699.9361176049903861;-700.00175768923259056;-699.98113797564508332;-700.04075043184468541;699.66680494228921816;-699.79680665950377261;699.91733760115937457;-699.96298529769831021;-699.90926204991842496;-699.91905308179514122;-700.00632478625595922;700.04403800414354464;699.95191486438716311;700.05739879076463694;-700.07514927220199752;699.91568467165166112;699.94383775830965533;-699.95122996825273276;700.01646432890981941;-699.86077341155123577;-700.06181246534845286;-700.03251231375702446;-700.07137204406615183;-700.03933591681561666;-700.01510125347488156;-700.00715746039236365;-700.16423704627652569;700.03077073428278254;699.93526546007888101;-700.02416876572749516;-699.94222276332232013;-699.98913751856105137;700.0005082385375772;-700.00464739044878115;-699.81204014219474629;699.97265106292979908;-699.98152418288202625;-700.07852662634240914;-700.09158622063512212;-699.91856888387087565;-700.17563690955455513;699.92225432012378405;700.03399376653078434;700.10643268001342676;-700.30355830293080999;-699.76139821158460563;-699.94336543880092449;699.92960794412408632;-699.92543556692066886;-700.05527599211495726;-699.97443864773208588;699.99615918198412601;699.94517630596180879;699.86955717496050511;-700.00847509274467484;699.96012830276924888;-699.98353364199203952;700.04667246430631167;-700.01553531438548816;699.90800117277024128;-699.85410394487166741;-700.03037801857306022;700.00346084132866054;699.99095936215928759;-699.95169050696995328;699.95366109879546457;699.98396633965580804;-700.11612853264273326;-699.96232408847640727;-699.99239867945425431;-699.99547923288287166;699.98962013471225418;699.98899072354140571;700.01675979865649424;699.92429824868725063;700.0286268482336709;-700.02517469337283273;699.99688610397856792;700.03149469730112742;-700.05223716732132289;699.9189750085323567;699.93062161549278244;699.98630964469907667;700.11050390209311445;700.02861312696427376;-700.02580523192716555;-699.98319006621602512;-699.95761067240505326;-699.98741408054775093;700.0134019521119626;-699.94091151427016939;-700.00970620978910119;-700.03338808341993627;-700.0481210954535527;-699.90507400154479001;-700.030529911695794;699.95901159558763993;-700.00265577191805733;-699.98101852657282507;699.95901727561692951;699.99862282998140017;-700.00242417994684274;-699.96008461207293294;-700.02149017662804908;-700.00036134684296485;699.99537194098297732;-700.00381428305558984;700.06364009233550405;700.0007763126102418;-700.0318257097866308;-700.03059307817522949;-700.00079484738421343;-699.97612500537604774;-700.03324251032654502;699.97455032418952214;-700.0916166244633132;-700.05462102659680568;700.03443444321169409;-699.97133051446166974;699.96969705252001859;700.01294943042933028;-700.01080662279935041;700.02673632394441938;-699.91564041044739497;-700.0031727133620052;699.98168037764764904;700.02457067872603602;699.94337471751327939;-700.00639395337634596;-700.01920057045242629;699.97018885679790401;700.02486786213353298;-699.99326784681750269;-699.98254754234221764;699.99524751993919836;-699.97499964359860769;699.97639291257712557;700.02994240067437204;700.00154287486884641;-699.97088073813972642;-699.98159663925821405;-699.98985684902788762;700.00036396537689143;-700.03786361680056416;700.02269522690562553;-699.99520882249589704;700.02425197841648696;-699.9681572236604552;700.01006811893569193;700.00984582538058021;699.99522349026835855;700.01121286932016119;-700.01995506455182294;699.99550651353581543;-700.00870934840270365;-700.02312409540297722;700.00624788517734487;700.01115692726375528;-699.9904302733671102;700.00302481711742075;700.00274039744920174;699.99996413365602166;700.01706047180448422;700.00327980769361602;700.02285226030755894;-700.0078135245530575;-699.99880297398919993;700.00332102434083481;-699.98980562513042969;-700.00449186935372836;-700.00257195683627742;699.98700802219264006;700.00300124716773098;700.00776633861175924;-699.99559887434611483;-699.99866452583444243;699.99948570930519054;-700.0006999821213185;-700.0012931923074575;699.99923930675402062;-700.00076027570980841;699.99910583982125445;699.99969427651603837;700.00458360011884906;-700.00009359491900796;700.00099430186844529;700.00230918356646725;700.0003397710685249;699.99395914676847497;700.00833115230921067;-699.99753910316530892;-699.99773496093007452;700.00223533619191585;-699.97122526546309018;-699.94447826188900308;-699.99870854740061077;-700.0060193405983;700.032908036089907;699.97656606513635325;-699.98281319987108873;-699.9909305037527929;699.99381055511821614;-700.03938070127048832;700.08054167782972854;700.02296575300010772;-699.99544311049271528;-699.93356989702272131;-700.01880644195239256;699.93664564508208059;-700.03733902893407048;-700.02781790021867891;-699.99527642663804272;-700.00807750576223043;-699.99767576101191935;-699.98248554626206897;700.01273568278156745;700.0355175446670728;-700.05441774924781839;700.06743159516759079;-700.03492324973092309;-700.03207872991788463;700.00219236447151161;700.00022236875315684;-699.97526426874890149;700.10286435658679238;-699.98434695589480725;700.02414228940961038;700.00757797043729624;700.00478558489601255;700.06285906414666442;700.03186225580964219;-699.99748928974941009;-700.05389724461485912;700.0533269059791337;-700.01038021765339181;-700.03490339504423901;699.97508355972252048;700.01219195146927632;700.05016945110048709;-699.99342268012856039;-699.97195019777007019;-699.9879697467299593;700.0291936068368841;-700.00300195723616525;700.02222905218070537;699.91071331792386445;-699.94058734668726629;-700.01397448483101016;-700.00785484903099132;-699.98875077654940924;-700.00413252677412856;700.03874607194029522;-699.99647368448370344;-699.98244527549582017;699.99695247185957214;-700.06753736912855857;-699.94098254884295329;700.00007568841579086;-700.01462924209840821;700.03394473246873986;699.98388503680803296;699.97243064712824889;-700.04953922953279744;699.91345225231498262;-700.08162274967833127;699.98353575575708874;700.02676267537208332;699.95399546503040256;-699.97622569350039612;700.01587611848640336;-700.04956371550144922;-699.97131737104734839;-700.00762180264314338;-700.00758059334259542;-700.00951701329734078;-699.91483587070456451;-699.98496888280851635;700.02365398239066963;-699.9930171932559233;700.02493229900369442;700.03516776868070792;700.02347394334128694;-699.80237585786971977;-699.93582616765343118;-700.07540615657853778;699.86090066974361434;699.97739387111084852;-699.83876675231522313;699.87677159627014589;700.03073248011753549;700.36726820303204022;700.01557241688499289;-700.15882961320676259;-699.75265733204116714;699.96984802550775839;699.92733105733918819;-700.06078842453666766;-699.857112609671276;-700.10563641750502484;-700.05160267155827114;-700.28896108809738053;-699.9981057277140053;699.92238841294749818;-699.9418737966509525;700.07104196116256389;700.04180553723870162;700.137246837274688;699.97137152702055118;700.02730379025922502;-699.84737988949575538;699.90168650120051552;-699.89196650553901691;700.09565459236966944;699.9476789924113973;-700.14963729879673338;-700.03685497179367303;-699.9718032484009882;699.8678094860784995;700.12267569273296886;-700.04672080334285056;700.03598889195257016;699.92223191953451078;-700.07365109348120313;699.99283667422537292;-699.92093669017697266;700.04598738704714833;-700.03626449685941679;-699.99951431151669112;-700.01807245158818205;-700.02067037875656297;700.0212954305693529;-699.95697689969370003;700.02420760131769839;-699.95722976967147133;-699.9737583799640106;-699.99240579288800745;699.91013683682490409;-699.89670787555849074;-700.03634592698006145;-699.99572169980547187;699.99937936305627773;-699.98993676592419888;700.00628459520760316;-700.04333835477950743;699.8910193107357145;-700.03351929248242413;699.89212758609482989;-700.02520772346440481;-699.75877761278923117;-700.19823008628668504;700.00770423990161362;699.96591954319296747;700.09933447224761949;-700.06707403195866846;699.9954511183740351;699.98074555433140631;700.05596625012128698;699.9194357094706902;700.24800837540681187;-700.0056763276552374;700.11993354586559235;-699.73666587920308757;-699.55042425572878528;699.91767144551101865;-700.11538567478316963;-700.48931421283270993;700.02134923003700351;700.28555288224345077;-700.03669845299748431;700.25786044107496764;-699.7764971910935401;699.87265778391531512;700.01714424436795525;-699.97495526296870594;700.1591755923330993;699.97965634892602793;700.03163581045635055;700.02643852816277104;-699.68801433194812489;-700.19439269948395577;-699.88281313965342179;700.10261165094198077;699.77563304349973805;-699.9673131520669358;699.92313292558083049;699.90356997370452063;700.20916669028179058;699.66491126626851837;700.07791953790081152;699.87216508076653554;699.96199333619665595;-699.4704050382498508;-699.84631986161286932;-699.72084435356111953;-699.79737283726319674;-700.28817402635252165;-699.64626187603607832;-699.50718472950745763;699.99629650121039504;700.18073423978785286;699.93675488656867856;699.75315655009421789;700.18307535100711902;-700.09516711986907467;-700.41655743650653676;700.06856389148026665;-700.04655667143765641;699.96951272857234017;699.96711227158300517;699.89885419731911043;-700.03411954022089958;-700.02009169128496069;699.9999152003438212;699.97585008362887038;699.91572360940710951;-699.99985033726795791;-699.76326795361944733;699.95270086234324936;-700.05646160438504921;-700.0103150962285099;700.00140832784052236;-700.19617037486239042;-700.00206591585344995;699.9967135718454756;-699.81922110236234857;700.00210741385785695;-700.0000067855467023;700.00000002519050213;699.99999999989131538;-699.99999999999988631];

% Layer 2
b2 = 0.42384199891037949159;
LW2_1 = [-0.93447325232575051412 -0.57575150128573460151 0.087472816473276593374 -0.6983180713218789526 -0.36703346704211731177 0.40458343315848349642 0.098701755342458841191 0.53668305702710450422 -0.45646965293099961425 0.30571476215843224056 -0.032437780610694244565 0.47308773673736342902 0.64980727994695486327 -0.15475604830328126837 -0.47807778407178491697 0.49101463629662095434 0.96778253908175537745 -0.041227873043704517386 0.010701120313081045193 0.30039577966345182292 0.20245661800135106301 0.0069621376211628227537 -0.0013473128216923459244 0.0071599711856138864574 0.10720299792207090006 -0.1668360556004997719 -0.069273793992230575656 0.003473476535000383919 -0.00077247973317743495736 -7.7899260597022023517e-05 -0.00097870392579481844952 -0.0021658733894176634971 0.024113701041048013485 0.025896852767399780593 0.0039808197937000154576 0.0015221236554684679232 -0.028061575160716056843 -0.031195787478469572118 0.0025024223152195603295 0.009795054977290246212 0.0091821440682634258845 0.0010659225552069554604 0.00042256898997271655216 0.002093904902322071826 -0.084524146398563343441 0.082993422044780801317 0.0016138511825102633268 0.0025139249872733332447 0.0089781671473343482859 0.24264355949866245332 0.24544747565763441743 0.013237231600004728538 0.01437567810354159481 -0.01304680273354000275 0.0019370527623314148791 0.00018300896968562662889 0.00055522420911042341674 -0.0022336756897506325481 -0.0091826386010688612616 -0.035281379358984218952 -0.061533079741220964021 0.037792737271373347263 0.091961566381448145435 0.10867105943996377415 -0.046984222756546178967 0.050200461781568575526 0.11594202012939998359 0.15869828538581981503 0.13961566406481587532 -0.11129710404426942927 0.10610976339680233682 0.03293953885652855379 0.068744833108896397089 -0.10583790918747487675 -0.0097484382021441606803 0.017656859422475829069 0.02361383756107364798 -0.014012698708895033467 0.014135034383442587891 0.0097107220350889401905 -0.029301740143266873789 -0.0062074041793262401887 0.0043926064338692958136 -0.030576753536180799331 -0.015912662716153221087 0.01952799741442700493 -0.007769178934836714831 -0.015107374545128955667 -0.011975307696703785948 0.018141938406540440015 -0.016180812524867194124 0.015422231169234499465 -0.022725504520186144697 0.023108621699318990933 -0.020274006252617996632 -0.0036439723791882490389 0.0031064078216538910243 -0.0057336781727006080195 -0.0040675879748908721351 -0.014309555660850832234 -0.017620982169465213008 0.0052457414453681086575 -0.047193001125844541432 -0.023281493288204280212 -0.024854859539779877026 -0.031237240366739839337 -0.0015100312976145042251 -0.1181637654665459447 -0.04121676472022080262 0.1435693378180687152 -0.081920681786823629222 -0.045272050146993141062 0.087457166300361266487 -0.070635613860431822886 0.25258123376865165843 -0.32008871379902331666 0.035687253663068845 0.010828084756430964714 -0.02983612602726539581 0.00077402624047566773169 0.018950811496080015306 -0.0011352224812154268485 0.0031148163155330296781 0.0028033687550232493091 -0.0066138417217092484307 0.00033608102813155980859 0.0026419076411619852457 0.0096835656881589671913 0.0065669688858427319178 0.0017692207603649812153 0.0054906395476326842753 -0.0029681056973827673814 -0.0029626944360763071001 0.0040254018059094707344 -0.0064270868351332484034 -0.0079025315360996481462 0.0052501678083785082579 -0.015105348197092326179 0.012321086381183749686 0.0052963667558794192206 0.005377420819472485472 0.0074109403809825679516 0.0044910268038180732597 0.026989938307494444614 -0.04260522976447399246 0.037503711453587849911 0.015307528332462792472 0.021958618465128233732 -0.0019918893507347699458 0.020382145396088791056 0.038399107598011940345 -0.033622574567981240723 0.019160056930374615852 0.029155402622090029197 -0.030230824128031276443 -0.011656836251430581497 0.01674139444049302719 -0.019997057209889691071 -0.0056836154110376157708 0.011976647728091711909 0.023113855810218089659 0.00025476270719086978626 -0.027115967254552963278 0.019267100095191315445 -0.020197061316649458917 0.019779265495102549971 0.031114176594463478775 0.011180999008976337528 0.0046829830767731407334 0.01126364944557195491 -0.012124507454585996963 -0.0090158330114428926472 -0.005644877443691948167 -0.00084264025278564373168 -0.00052105489590314004768 0.0013155348164008086494 -0.00082707457845561773227 0.014235898891217792575 -0.013126439036130701024 0.0074491007106733120313 -0.017988600600508566907 0.0031866529520612218475 0.0063019500864018099251 0.0011901480528490192452 0.010950939111793078079 0.012477950451114565647 -0.018497789847548611747 -0.0074282526911061182856 0.0058182326313568517862 0.019214950422527594248 -0.0061028295902620420879 -0.00080296458775212418372 -0.0057364738165645804552 -0.01459307414065868537 -0.0043241218413515407348 0.0037310966850141731414 -0.015481102383067352202 0.009599118102087949439 -0.0063751096911527898453 0.0043490460671202725226 0.0071532767575696407786 -0.00098072269612269969211 0.0036101102596437224627 -0.0069148933835383357208 -0.0035168979325909000694 -0.012937484451754761167 -0.003884971308955703119 0.0093790508048376998451 -0.012573021641059362041 -0.0070227953788330136492 -0.003864462974797249796 -0.009011787995608840432 -0.003049100775676186377 0.0061137548942473644159 0.0086956175186284241641 -0.00052448661754873416099 -0.0033074239443091164523 -0.0052460297112069884107 0.0094546989372944704316 -0.0065441539029528301638 0.0061003692522611776758 0.0030583379181778462021 0.0093426810492323788399 0.012753852217072291983 0.0039455218187683894701 -0.0089407161022534587663 -0.0032824374588007101256 0.0081039052044106687361 0.002455820132406990805 0.00078133339968449410078 0.0060998275515387221854 -0.00667031650073504883 0.013250408611243845447 -0.010394781786495999043 0.017579269755264151365 0.010360094655635459365 -0.013417820202397165441 -0.0051242898573983569274 -0.0075975299063537737182 0.0033528023404097470443 0.0038387388469313323165 0.010391671782047702532 -0.0077120175116072806759 0.008474260482970659078 -0.0040481944630158615134 -0.0079649984339655484356 -0.0096585934573535491693 -0.0053802942905015437025 -0.010010960804540613989 -0.010559031248277306672 -0.0097244680484794582959 -0.0072684344330943518805 0.0025007479181034762694 0.0083723860292620883028 -0.0013990603568204049677 -0.0068064491142835652562 0.0048618931243935266731 0.0071072042109450016961 0.0040325320567124447665 0.0046503494768789736119 0.0017971307830642064413 0.0013033299615690242639 0.0054303485558741797917 -0.024775164480422488811 0.037399840643357565306 -0.023503864335716474765 0.0068601613334724146492 0.0091063817287426046532 0.0095628409754092355555 0.0042417826111891014304 -0.0096816512817886890563 0.011821817845892175838 0.025155433804401813869 0.023827734504627239021 0.014142221909936220081 0.015038620542006157776 -0.021665332794062373833 0.012247402618701839008 0.01258014660755690968 -0.003281461644411606815 0.011652977546251736679 -0.0012669789323383560259 -0.01036468595490926646 -0.0031946101406369301241 -0.0043045169895945291361 0.0078857256242555254233 -0.0046603158297894879333 0.015602311006379246741 0.014717110035542713131 0.0044195032156930380562 -0.011697270929804853834 -0.00072918984271320346022 -0.017279640476144320776 -0.00049556341874901210787 0.020136909866429877208 0.010875331423745429604 0.013086013537308134255 -0.013034195668596681647 -0.0046513957589552267988 0.0068438220683881860126 0.0080482261461196046015 0.0017437054928108588689 -0.0086873640371365988544 -0.012906136087687565886 -0.002025996048617131548 0.00080212482076865939708 0.0080669719200695769873 -0.0046530465117311523363 0.0095654986012888073427 -0.0012766407276630770389 0.0011673412849060277145 0.0020696089181160464213 -0.0028780926861455662091 -0.0071064114204781861014 0.005678113622409998798 1.7830291960157368392e-05 -0.017870477778703024868 0.015805565706095439649 0.0039725335868540032069 -0.0044985472051757889947 0.0044240312290035393658 0.013126996816878060137 0.0074143200785542181033 -0.0084622001324597996563 0.00043706638438359879557 0.0063066819578399373192 -0.0053271158321290005763 0.0033890914537020658259 0.0035110004763208076811 0.0046814000414203051775 0.003946758261551538971 0.0093365216407262485027 0.0076989920748221718841 0.0035819838849054639641 -0.011898623552874378756 -0.0095061780155787142105 -0.0013165780863484441258 0.0039264468595081730706 -0.019489205211014430652 -0.015629529682236735499 -0.0086549940293922794643 -0.0043653872384862785552 0.010441348225259541524 -0.011859206784577861621 0.0090076041876692766047 -0.021063395254111178662 -0.0057592831482309609498 0.0098007507416911377601 0.0042834810192121704903 0.0075556818115155213039 -0.01718312161191115281 0.0056421842353264880718 -0.042144464054608400672 0.039633051539298219668 -0.027808613946463077438 -0.019773606286460358034 0.0030915644976378846634 -0.013238068398253838298 -0.0064502837654963280159 -0.024795951301398749811 0.040317809856404360214 0.0099498714165729158082 0.017687566358097754626 0.018436958959322721774 0.030158020886917841913 0.006668688669059840389 -0.005122322069666877635 0.032325374097459974587 -0.054513657113780741859 0.049374245202487010431 -0.038764878984012991758 -0.010523738946834825317 -0.0178657525866093847 -0.016292257580059726907 -0.029337036152118082383 0.017961022802063110471 -0.0082671506261369660795 -0.0091891013896132755362 0.024421002509954908843 -0.023497155450551247824 0.0035491875999749933866 0.015664292234408124654 0.0018034980561593152125 -0.003718119149452588524 0.015605705367540698494 -0.012725502844925955237 0.019575383406777908252 0.027188008657976325821 -0.031170561814631809333 -0.016984309134612535913 -0.014396863915671548328 0.011144254505302566421 0.012861248299656312388 0.0077003721103123803568 0.00046478754741954408231 0.0075298074607926378937 0.022824923759317324728 -0.014609641134105219584 0.013462769587280470213 -0.015800874476381367856 -0.01663010687784022279 -0.012601524831471297428 -0.0082011337265626531312 0.0038058759719886044171 -0.0041195240881815187867 0.010729978937139287437 0.054644470978078341084 0.031950326937000249339 0.022505333572223083782 -0.0066242380121410522273 0.0052937568247213165687 0.0030808452858350479295 0.00032365732922035907182 -0.0040315214227265565999 -0.015998176854442089367 -0.044368756736373513028 -0.050422444439394045745 -0.033906941898699076432 -0.02022691902557428173 0.014416324732260121788 0.057068875512887418111 -0.023210793638161038299 -0.081297957038138538022 -0.073422816025584258792 0.020951606013764716152 -0.00068584624259630452836 -0.0016235989349686053267 0.0090273945373374742118 0.0057487718366092642464 -0.010503204391160668452 0.0097834029528690094613 0.017147224380372014241 -0.19107108640776565567 -0.25922400542390144906 -0.17606604293325264776 0.10909417176853923592 0.0050108094006009393229 0.060327978367214797617 -0.036360916310345783864 -0.068959017429103763863 0.016400322518252928583 0.040465927093551172511 0.017995171122363488175 0.038297799115772475365 0.053650739714616389742 -0.0051116642500520868136 0.065642960599055055759 -0.084935348491728943077 -0.047541750784844100108 0.032475678856701536978 0.077453984897074168448 0.16472303406030011641 -0.12507351065916680333 -0.037128602939105491421 0.077524200328070780319 0.052224281378573135515 -0.1133366846224038299 0.058064971685584450267 -0.016713689922997630039 -0.026623240901047635215 0.091734930774104883611 -0.028021162364643008996 0.038475865967301028925 0.0017857267809352470912 -0.01869724538415934445 -0.011434883471369595986 0.086267527789750886313 -0.11788383725706730321 -0.016337320265648921924 0.0092302512683276501104 -0.065641400169984875923 0.074414842879346104754 -0.053886442934851591646 0.030258441162561700716 -0.079443591691031378854 -0.011797499818799543278 -0.0026217947693302724385 -0.00083306046117520202686 -9.8337545635216253026e-05 0.0012998387756952486938 0.001912276441375149183 -0.0033622016581096002275 -0.0076841499523428464374 0.0361908842810165568 -0.39046599421940614283 0.17152400534946476984 -0.54777478752969577247 -0.023288144781121025706 -0.024468541288603568029 0.95740715669372777885 0.62734176779972294913 -0.31916139374989599409 0.012339157687783680606 0.073377850669274491402 0.54709797890637668072 0.83579961403570524059 -0.7224806869025939271 0.73516577774690072822 -1.1072758938244509075 0.51130818877840167325];

% Output 1
y1_step1.ymin = -1;
y1_step1.gain = 0.0304481005460618;
y1_step1.xoffset = -35.3891977430646;

% ===== SIMULATION ========

% Format Input Arguments
isCellX = iscell(X);
if ~isCellX
  X = {X};
end

% Dimensions
TS = size(X,2); % timesteps
if ~isempty(X)
  Q = size(X{1},2); % samples/series
else
  Q = 0;
end

% Allocate Outputs
Y = cell(1,TS);

% Time loop
for ts=1:TS

    % Input 1
    Xp1 = mapminmax_apply(X{1,ts},x1_step1);
    
    % Layer 1
    a1 = tansig_apply(repmat(b1,1,Q) + IW1_1*Xp1);
    
    % Layer 2
    a2 = repmat(b2,1,Q) + LW2_1*a1;
    
    % Output 1
    Y{1,ts} = mapminmax_reverse(a2,y1_step1);
end

% Final Delay States
Xf = cell(1,0);
Af = cell(2,0);

% Format Output Arguments
if ~isCellX
  Y = cell2mat(Y);
end
end

% ===== MODULE FUNCTIONS ========

% Map Minimum and Maximum Input Processing Function
function y = mapminmax_apply(x,settings)
  y = bsxfun(@minus,x,settings.xoffset);
  y = bsxfun(@times,y,settings.gain);
  y = bsxfun(@plus,y,settings.ymin);
end

% Sigmoid Symmetric Transfer Function
function a = tansig_apply(n,~)
  a = 2 ./ (1 + exp(-2*n)) - 1;
end

% Map Minimum and Maximum Output Reverse-Processing Function
function x = mapminmax_reverse(y,settings)
  x = bsxfun(@minus,y,settings.ymin);
  x = bsxfun(@rdivide,x,settings.gain);
  x = bsxfun(@plus,x,settings.xoffset);
end
